<?xml version="1.0"?>
<opencv_storage>
<cascade>
  <stageType>BOOST</stageType>
  <featureType>LBP</featureType>
  <height>32</height>
  <width>32</width>
  <stageParams>
    <boostType>GAB</boostType>
    <minHitRate>9.9900001287460327e-001</minHitRate>
    <maxFalseAlarm>9.9999997764825821e-003</maxFalseAlarm>
    <weightTrimRate>9.4999998807907104e-001</weightTrimRate>
    <maxDepth>1</maxDepth>
    <maxWeakCount>500</maxWeakCount></stageParams>
  <featureParams>
    <maxCatCount>256</maxCatCount>
    <featSize>1</featSize></featureParams>
  <stageNum>7</stageNum>
  <stages>
    <!-- stage 0 -->
    <_>
      <maxWeakCount>123</maxWeakCount>
      <stageThreshold>-2.8038519620895386e-001</stageThreshold>
      <weakClassifiers>
        <_>
          <internalNodes>
            0 -1 244 -51577720 -34799634 -155124096 -131092 -2097170 -17
            -65554 -1</internalNodes>
          <leafValues>
            -7.1336835622787476e-001 3.0621075630187988e-001</leafValues></_>
        <_>
          <internalNodes>
            0 -1 658 -574792448 -1966737 -34345216 -2228237 -549495737
            -69215233 -8377 -1</internalNodes>
          <leafValues>
            -3.8290375471115112e-001 2.5154536962509155e-001</leafValues></_>
        <_>
          <internalNodes>
            0 -1 99 -5439490 -286330882 -287381812 -489750530 -595201
            1996455919 -56819713 -151192833</internalNodes>
          <leafValues>
            -2.7983424067497253e-001 3.0026605725288391e-001</leafValues></_>
        <_>
          <internalNodes>
            0 -1 1017 -80002878 -343009656 1986195616 -790662968
            -1442152446 40788992 847966402 -209022770</internalNodes>
          <leafValues>
            -2.0235651731491089e-001 2.7177700400352478e-001</leafValues></_>
        <_>
          <internalNodes>
            0 -1 19 547357704 145488318 -1359946004 -487868929
            -168855201 -96470535 -67585 -152043521</internalNodes>
          <leafValues>
            -2.8657025098800659e-001 1.8899366259574890e-001</leafValues></_>
        <_>
          <internalNodes>
            0 -1 895 -206897014 -360052566 573976640 -152350480
            -1301641718 67132424 523547302 -208961320</internalNodes>
          <leafValues>
            -1.5082633495330811e-001 3.0830073356628418e-001</leafValues></_>
        <_>
          <internalNodes>
            0 -1 957 -1079279480 -1008007040 1387806912 -223409936
            -1281711606 -2091963324 -219507038 -1292238710</internalNodes>
          <leafValues>
            -2.4459934234619141e-001 2.1708714962005615e-001</leafValues></_>
        <_>
          <internalNodes>
            0 -1 822 -116979584 -208993656 -361791424 -102166336
            -1076191232 -1603512432 -138505500 -74727207</internalNodes>
          <leafValues>
            -1.5318167209625244e-001 3.0658087134361267e-001</leafValues></_>
        <_>
          <internalNodes>
            0 -1 875 -16875896 1517843436 -81068256 2123198305
            -201330964 -18157589 -1343029264 717787120</internalNodes>
          <leafValues>
            -3.2931569218635559e-001 1.4010514318943024e-001</leafValues></_>
        <_>
          <internalNodes>
            0 -1 1196 -71400824 -391365464 -233672096 -926299708
            -1250188286 -1976425213 -226693422 -209010516</internalNodes>
          <leafValues>
            -1.6859735548496246e-001 2.5963205099105835e-001</leafValues></_>
        <_>
          <internalNodes>
            0 -1 908 -1254371190 -925927264 -588901376 1885315748
            -1146439480 1243774492 -721779014 -204487542</internalNodes>
          <leafValues>
            -1.7106418311595917e-001 2.6547938585281372e-001</leafValues></_>
        <_>
          <internalNodes>
            0 -1 65 1852704938 -294662166 -2064193356 -521404184
            1609501418 -67129353 1819690488 1985306912</internalNodes>
          <leafValues>
            -2.9154703021049500e-001 1.5671734511852264e-001</leafValues></_>
        <_>
          <internalNodes>
            0 -1 948 -1079373686 -290845144 -1305976288 -766826568
            -1626962424 137104400 353812534 -207976232</internalNodes>
          <leafValues>
            -2.2206009924411774e-001 2.0444777607917786e-001</leafValues></_>
        <_>
          <internalNodes>
            0 -1 900 -1339948864 -225770880 814404097 1928853741
            -295118258 -2034763412 1986721459 -72616454</internalNodes>
          <leafValues>
            -1.7563760280609131e-001 2.5554826855659485e-001</leafValues></_>
        <_>
          <internalNodes>
            0 -1 1025 -1165356928 -970312000 -20913120 1111838944
            -1525710206 -2094471616 -219483405 -625282916</internalNodes>
          <leafValues>
            -1.9578880071640015e-001 2.1527251601219177e-001</leafValues></_>
        <_>
          <internalNodes>
            0 -1 966 -1163183390 -336646198 -798593984 -250616855
            -1369518038 -1507989410 819639434 -71589685</internalNodes>
          <leafValues>
            -1.5909582376480103e-001 2.9247346520423889e-001</leafValues></_>
        <_>
          <internalNodes>
            0 -1 892 -1113010976 -18031104 49340068 -254069076
            -1198474678 -1540880623 -1628002832 -695493412</internalNodes>
          <leafValues>
            -1.6191317141056061e-001 2.3772168159484863e-001</leafValues></_>
        <_>
          <internalNodes>
            0 -1 905 -1148424064 -368573536 -145331134 -741118227
            -1723959744 625498900 -146475326 -610102135</internalNodes>
          <leafValues>
            -2.0102564990520477e-001 1.9999299943447113e-001</leafValues></_>
        <_>
          <internalNodes>
            0 -1 1043 1318778624 -77795409 -7014456 2079162104
            2009065732 2078211834 -1351418080 -1103298730</internalNodes>
          <leafValues>
            -2.5451627373695374e-001 1.6248095035552979e-001</leafValues></_>
        <_>
          <internalNodes>
            0 -1 30 -897175954 -293143100 -559614226 -601720945
            -21006344 -305536753 -83483730 1597399199</internalNodes>
          <leafValues>
            -2.3912404477596283e-001 1.6467168927192688e-001</leafValues></_>
        <_>
          <internalNodes>
            0 -1 1075 -1077247808 -1012199640 2053788322 -791292732
            -282278840 108742756 1028321926 -610610723</internalNodes>
          <leafValues>
            -1.9222870469093323e-001 2.0403395593166351e-001</leafValues></_>
        <_>
          <internalNodes>
            0 -1 1119 -542145336 -1020655032 1351255040 -858425915
            -1566768448 -1374185856 -2073770301 -614805254</internalNodes>
          <leafValues>
            -1.6372969746589661e-001 2.4398726224899292e-001</leafValues></_>
        <_>
          <internalNodes>
            0 -1 961 -1170502526 -357898032 381964112 -3277632 -18166648
            -1532072930 1996276714 -73495096</internalNodes>
          <leafValues>
            -1.5958283841609955e-001 2.3696151375770569e-001</leafValues></_>
        <_>
          <internalNodes>
            0 -1 828 -207399808 -280286936 -125860192 -78252892
            -1150416384 -1911614156 -153701406 -72639296</internalNodes>
          <leafValues>
            -1.5348833799362183e-001 2.4619454145431519e-001</leafValues></_>
        <_>
          <internalNodes>
            0 -1 354 -1362119070 787394411 1723189698 -1025819676
            1342111302 1952710231 -788826300 1374748354</internalNodes>
          <leafValues>
            -4.3188083171844482e-001 8.7953202426433563e-002</leafValues></_>
        <_>
          <internalNodes>
            0 -1 1168 -88357182 -812966748 -898062807 -739536715
            -1162173814 -1509241342 -1278282818 -71335782</internalNodes>
          <leafValues>
            -1.2069609016180038e-001 3.3126801252365112e-001</leafValues></_>
        <_>
          <internalNodes>
            0 -1 360 -1524397430 -353703390 816784992 -797196254
            -160471216 583991553 1444722226 -681409392</internalNodes>
          <leafValues>
            -2.0082306861877441e-001 1.9290514290332794e-001</leafValues></_>
        <_>
          <internalNodes>
            0 -1 265 -858919296 -184889760 -320568300 1744109045
            1994976992 1322119792 -1731429420 150272340</internalNodes>
          <leafValues>
            -3.6280822753906250e-001 1.1155377328395844e-001</leafValues></_>
        <_>
          <internalNodes>
            0 -1 1363 -270812542 -894719846 733114372 1758331000
            -2041601404 -967956608 -1307778062 -835747381</internalNodes>
          <leafValues>
            -1.5271405875682831e-001 2.4777749180793762e-001</leafValues></_>
        <_>
          <internalNodes>
            0 -1 881 -6598528 -623440990 180153866 -255125012
            -1145012216 103101957 -499583818 -752830008</internalNodes>
          <leafValues>
            -1.8453975021839142e-001 2.0370484888553619e-001</leafValues></_>
        <_>
          <internalNodes>
            0 -1 717 -1082143958 1787480059 -370362304 -2005925963
            -671647740 15880051 -59379392 1425472995</internalNodes>
          <leafValues>
            -3.9752951264381409e-001 9.9448628723621368e-002</leafValues></_>
        <_>
          <internalNodes>
            0 -1 243 671091712 729882562 2120440040 1622146754
            1548841200 1331584634 -153005329 33250127</internalNodes>
          <leafValues>
            -3.9943102002143860e-001 8.6484141647815704e-002</leafValues></_>
        <_>
          <internalNodes>
            0 -1 686 -7421270 -85106552 417135456 -623906919 -1153658146
            -2074981408 -1689324322 -67132418</internalNodes>
          <leafValues>
            -1.2152683734893799e-001 3.1155890226364136e-001</leafValues></_>
        <_>
          <internalNodes>
            0 -1 695 -1858599776 -895345088 -742395840 -223364624
            -1683542008 -1026618312 1589814390 -71654242</internalNodes>
          <leafValues>
            -1.7700451612472534e-001 2.0674844086170197e-001</leafValues></_>
        <_>
          <internalNodes>
            0 -1 586 -1128296198 -318003574 1440772704 -3880 -1318020970
            -2138019636 2071213179 -745802595</internalNodes>
          <leafValues>
            -1.3778378069400787e-001 2.6737990975379944e-001</leafValues></_>
        <_>
          <internalNodes>
            0 -1 1014 -1095759712 -336937216 -1471089632 -60596295
            -1363537384 -808748460 867492530 -207973168</internalNodes>
          <leafValues>
            -1.9801950454711914e-001 1.8176780641078949e-001</leafValues></_>
        <_>
          <internalNodes>
            0 -1 946 -1440040758 -290681184 -1596148126 -756189960
            -1330845558 -2073299304 -942353170 -1148542724</internalNodes>
          <leafValues>
            -1.6243493556976318e-001 2.2372746467590332e-001</leafValues></_>
        <_>
          <internalNodes>
            0 -1 64 1785644660 643739370 2115936146 1781025164 -4428
            -1347861260 -476776711 1621256256</internalNodes>
          <leafValues>
            -3.0623319745063782e-001 1.1994484066963196e-001</leafValues></_>
        <_>
          <internalNodes>
            0 -1 1186 -1170260224 -742526978 -33620814 561560368
            -1248854176 -268959861 821853152 1064686526</internalNodes>
          <leafValues>
            -2.5056427717208862e-001 1.4744125306606293e-001</leafValues></_>
        <_>
          <internalNodes>
            0 -1 813 -910685502 -833659382 774669024 -171182697
            -1087615320 -1523810024 -1300433186 -1153712934</internalNodes>
          <leafValues>
            -1.5813000500202179e-001 2.4165187776088715e-001</leafValues></_>
        <_>
          <internalNodes>
            0 -1 998 -68417334 -106362934 -1662555518 -354816344
            -311512686 4506983 -1020614986 -225789800</internalNodes>
          <leafValues>
            -1.5764455497264862e-001 2.3054450750350952e-001</leafValues></_>
        <_>
          <internalNodes>
            0 -1 212 2142158568 581464741 -162249054 -491350449
            1454141255 1937163879 -571739099 1726263156</internalNodes>
          <leafValues>
            -3.8852825760841370e-001 9.2270165681838989e-002</leafValues></_>
        <_>
          <internalNodes>
            0 -1 527 -1046357560 2092543872 -1226003328 1199435581
            1820467228 -579201107 985726028 809039718</internalNodes>
          <leafValues>
            -2.9956054687500000e-001 1.1762867867946625e-001</leafValues></_>
        <_>
          <internalNodes>
            0 -1 1435 -4227038 -1043387954 42714700 1079900712
            -1487412176 5243032 1476130758 -73484549</internalNodes>
          <leafValues>
            -1.5944515168666840e-001 2.3194161057472229e-001</leafValues></_>
        <_>
          <internalNodes>
            0 -1 1256 -149217126 608713882 1080275792 45650979
            -155664542 842016072 575189131 -10563414</internalNodes>
          <leafValues>
            -1.6831174492835999e-001 2.1892163157463074e-001</leafValues></_>
        <_>
          <internalNodes>
            0 -1 1001 -601357174 1252825792 -91893012 -101720907
            1072087754 673482005 -1141710345 -103229303</internalNodes>
          <leafValues>
            -1.6842317581176758e-001 2.1699120104312897e-001</leafValues></_>
        <_>
          <internalNodes>
            0 -1 321 -206332246 -355491288 816460380 -72961283 -11749238
            -1372919532 -83699958 -67112538</internalNodes>
          <leafValues>
            -1.1980096250772476e-001 3.0363610386848450e-001</leafValues></_>
        <_>
          <internalNodes>
            0 -1 1114 -1884680054 -341104936 1649995906 -557896194
            -1230851198 -1937154454 2007212950 -619825988</internalNodes>
          <leafValues>
            -1.7491327226161957e-001 2.0044614374637604e-001</leafValues></_>
        <_>
          <internalNodes>
            0 -1 126 1568988414 2082235742 -622919910 1549589822
            1878916057 2138078293 -597281232 -538014980</internalNodes>
          <leafValues>
            -1.8604917824268341e-001 1.9503906369209290e-001</leafValues></_>
        <_>
          <internalNodes>
            0 -1 1011 -129988440 -656387424 -1325761679 -740335644
            -1093241846 -493946112 -159662406 -67453813</internalNodes>
          <leafValues>
            -1.4359170198440552e-001 2.5379571318626404e-001</leafValues></_>
        <_>
          <internalNodes>
            0 -1 367 528997090 744914722 -893453792 1793283904
            1901946692 120059234 1371493669 1413740357</internalNodes>
          <leafValues>
            -4.8679408431053162e-001 7.6555311679840088e-002</leafValues></_>
        <_>
          <internalNodes>
            0 -1 1067 -108520830 -7390040 975886048 -1829815196
            -1170550229 -16015660 854045591 -74731542</internalNodes>
          <leafValues>
            -1.4420582354068756e-001 2.5238674879074097e-001</leafValues></_>
        <_>
          <internalNodes>
            0 -1 46 1248079074 -948802386 1989185034 -1096783722
            204033350 452420477 402202839 1296450886</internalNodes>
          <leafValues>
            -2.8251382708549500e-001 1.2760904431343079e-001</leafValues></_>
        <_>
          <internalNodes>
            0 -1 318 -605317110 -85840616 -1978236348 -20067682
            1084655234 -488083892 1660412882 -606611796</internalNodes>
          <leafValues>
            -1.4185357093811035e-001 2.5433605909347534e-001</leafValues></_>
        <_>
          <internalNodes>
            0 -1 954 -83918198 -1362086 1929294514 -201344854 -236289896
            -1280660123 -209803714 -603998772</internalNodes>
          <leafValues>
            -1.1692797392606735e-001 3.0197146534919739e-001</leafValues></_>
        <_>
          <internalNodes>
            0 -1 540 -1314512248 -87451512 -18050880 -657055512
            -372854654 -2074780547 2119497362 -740633348</internalNodes>
          <leafValues>
            -1.7316707968711853e-001 2.0533604919910431e-001</leafValues></_>
        <_>
          <internalNodes>
            0 -1 514 479038464 515971534 -1112574232 -649512092
            -21754802 -84135945 -1445594685 1266122471</internalNodes>
          <leafValues>
            -2.8389614820480347e-001 1.2820330262184143e-001</leafValues></_>
        <_>
          <internalNodes>
            0 -1 1123 -1970270038 -1831994622 -489290002 -494928148
            -1473868794 -407071120 -1227559182 -82066693</internalNodes>
          <leafValues>
            -1.5997450053691864e-001 2.3030656576156616e-001</leafValues></_>
        <_>
          <internalNodes>
            0 -1 653 -607729412 -425190520 1828483712 1976407481
            -337207168 -820273066 1029101270 -615861544</internalNodes>
          <leafValues>
            -1.4820083975791931e-001 2.3897294700145721e-001</leafValues></_>
        <_>
          <internalNodes>
            0 -1 103 2052000366 615316014 -388062558 -2098800478
            1408726342 1148043135 -202041771 1680106340</internalNodes>
          <leafValues>
            -4.9166503548622131e-001 7.5014375150203705e-002</leafValues></_>
        <_>
          <internalNodes>
            0 -1 25 1187120814 1254550670 -340078660 1019784638
            -139530243 -1208819875 -547669540 1848913334</internalNodes>
          <leafValues>
            -2.6082149147987366e-001 1.3438870012760162e-001</leafValues></_>
        <_>
          <internalNodes>
            0 -1 309 1317576904 621006048 607005314 145718832 2122860622
            1290517768 1515208655 1351180048</internalNodes>
          <leafValues>
            -3.4282243251800537e-001 1.0530143976211548e-001</leafValues></_>
        <_>
          <internalNodes>
            0 -1 1243 -1165815192 -271857966 442465922 -22972788
            -1466457780 -1583317128 -61290053 -872415746</internalNodes>
          <leafValues>
            -1.5000985562801361e-001 2.4522148072719574e-001</leafValues></_>
        <_>
          <internalNodes>
            0 -1 1201 -69996342 -628915262 -1039486303 -559007802
            -26222462 -1563201865 -1221067222 -12601974</internalNodes>
          <leafValues>
            -1.1486443877220154e-001 3.1186041235923767e-001</leafValues></_>
        <_>
          <internalNodes>
            0 -1 276 -805635200 1944091328 -863448572 1013637076
            -72321980 1135373388 1492554516 1338116</internalNodes>
          <leafValues>
            -4.0677443146705627e-001 9.2261165380477905e-002</leafValues></_>
        <_>
          <internalNodes>
            0 -1 1276 -1113354072 -1343873782 -1704788734 1793996532
            -1693207846 -1936263852 -757804314 -1028682082</internalNodes>
          <leafValues>
            -1.5777170658111572e-001 2.2132566571235657e-001</leafValues></_>
        <_>
          <internalNodes>
            0 -1 1167 -641033008 -114561832 1285973808 -251704164
            -1451923574 1157621185 -1399401482 -5527894</internalNodes>
          <leafValues>
            -1.3550810515880585e-001 2.7092996239662170e-001</leafValues></_>
        <_>
          <internalNodes>
            0 -1 899 -1265416608 2116042737 -522520960 -226509353
            -2022095289 1181450037 -1226350505 -233965333</internalNodes>
          <leafValues>
            -2.2244873642921448e-001 1.6399382054805756e-001</leafValues></_>
        <_>
          <internalNodes>
            0 -1 1203 -1688139094 -406962392 -411483420 -805609540
            -2094362484 -304880928 -1176991846 -884304742</internalNodes>
          <leafValues>
            -1.5555490553379059e-001 2.2914239764213562e-001</leafValues></_>
        <_>
          <internalNodes>
            0 -1 774 -1178958638 -273989720 -826623928 -101037859
            -1228240708 -1821987408 -1535855661 -750080803</internalNodes>
          <leafValues>
            -1.5129795670509338e-001 2.3102143406867981e-001</leafValues></_>
        <_>
          <internalNodes>
            0 -1 238 -1540290550 -1864411433 -1483474956 -1242759218
            -10005026 -897609893 -1250594026 161438719</internalNodes>
          <leafValues>
            -2.4694418907165527e-001 1.4424575865268707e-001</leafValues></_>
        <_>
          <internalNodes>
            0 -1 35 -571893050 -1035632926 1340003936 -396066055
            -1033948864 -686300315 279531347 -1003521619</internalNodes>
          <leafValues>
            -2.1154375374317169e-001 1.6945138573646545e-001</leafValues></_>
        <_>
          <internalNodes>
            0 -1 368 -73161046 -287330352 1412469088 -236280996
            -1209129968 1466256546 519022786 -28592870</internalNodes>
          <leafValues>
            -1.5100520849227905e-001 2.3219762742519379e-001</leafValues></_>
        <_>
          <internalNodes>
            0 -1 77 -190782344 -460587584 1690576518 -1127858260
            2144333036 -2105048323 -462361858 1649696372</internalNodes>
          <leafValues>
            -3.2004007697105408e-001 1.1277481168508530e-001</leafValues></_>
        <_>
          <internalNodes>
            0 -1 227 503312862 1311122156 -459296636 1783019626
            1929068807 319430454 -1799523578 1425342259</internalNodes>
          <leafValues>
            -3.5718154907226563e-001 1.0117352008819580e-001</leafValues></_>
        <_>
          <internalNodes>
            0 -1 273 -1712650086 -779113030 1121363620 1970133604
            -70865188 1630879030 -1778981214 -148666629</internalNodes>
          <leafValues>
            -1.3839595019817352e-001 2.6568573713302612e-001</leafValues></_>
        <_>
          <internalNodes>
            0 -1 1046 -1724052736 630835134 -403804384 763578344
            2147102532 -1308684305 1676705312 620781332</internalNodes>
          <leafValues>
            -3.7541463971138000e-001 9.9055960774421692e-002</leafValues></_>
        <_>
          <internalNodes>
            0 -1 441 1032584953 -645107028 754629349 -639009419
            -589243198 1677416823 443577043 405565559</internalNodes>
          <leafValues>
            -1.7589063942432404e-001 2.0099680125713348e-001</leafValues></_>
        <_>
          <internalNodes>
            0 -1 763 -1236641640 -1027846968 -562938750 -745968447
            -471866210 -994925292 -1477267058 -73815</internalNodes>
          <leafValues>
            -1.4947752654552460e-001 2.4323625862598419e-001</leafValues></_>
        <_>
          <internalNodes>
            0 -1 1161 -1241373048 1250254852 1481005824 -660211211
            -1437940084 -863348353 1595908754 -619138175</internalNodes>
          <leafValues>
            -1.8345850706100464e-001 1.8785884976387024e-001</leafValues></_>
        <_>
          <internalNodes>
            0 -1 18 100697216 604527076 -2037330840 552450568 -594938667
            723077631 480312687 2128597631</internalNodes>
          <leafValues>
            -3.5759073495864868e-001 1.0093240439891815e-001</leafValues></_>
        <_>
          <internalNodes>
            0 -1 858 -74476342 -290649388 -360694264 -100663458
            -1209864126 -393732172 1919287010 -888020525</internalNodes>
          <leafValues>
            -1.4588315784931183e-001 2.5875914096832275e-001</leafValues></_>
        <_>
          <internalNodes>
            0 -1 738 -687141878 -891599188 1354498084 -260721573
            -1141960034 -749855232 -1636370758 -791097148</internalNodes>
          <leafValues>
            -1.6744661331176758e-001 2.1915824711322784e-001</leafValues></_>
        <_>
          <internalNodes>
            0 -1 492 -886177278 -1437716815 -273653568 -665225598
            -141538260 18690326 1924189042 -151283038</internalNodes>
          <leafValues>
            -1.8657247722148895e-001 1.9507493078708649e-001</leafValues></_>
        <_>
          <internalNodes>
            0 -1 355 -1077999928 -106245236 -1682808218 -646443798
            -29481902 -1369038846 1977939546 -244653016</internalNodes>
          <leafValues>
            -1.7026054859161377e-001 2.1812677383422852e-001</leafValues></_>
        <_>
          <internalNodes>
            0 -1 933 -638694324 411298408 -1182283254 -1946331436
            30964546 1137593210 1475600350 321028455</internalNodes>
          <leafValues>
            -2.3846110701560974e-001 1.4711198210716248e-001</leafValues></_>
        <_>
          <internalNodes>
            0 -1 749 -206651150 -403712726 -528848654 -187082044
            -1099243986 671037311 -159860801 -614818418</internalNodes>
          <leafValues>
            -1.2999404966831207e-001 2.7119517326354980e-001</leafValues></_>
        <_>
          <internalNodes>
            0 -1 1053 -761251120 -896579396 -294925567 -800621992
            -1141128175 41833959 1651041263 -757664024</internalNodes>
          <leafValues>
            -1.6590885818004608e-001 2.1249686181545258e-001</leafValues></_>
        <_>
          <internalNodes>
            0 -1 613 405862848 -328993566 518326978 -1242963360
            953574976 941161374 2074516480 1612976705</internalNodes>
          <leafValues>
            -3.3430790901184082e-001 1.0401083528995514e-001</leafValues></_>
        <_>
          <internalNodes>
            0 -1 895 1050182280 -626041374 711860810 -539164692
            -1428622205 -1532396420 -542215026 -1628960805</internalNodes>
          <leafValues>
            -1.7759527266025543e-001 1.9962392747402191e-001</leafValues></_>
        <_>
          <internalNodes>
            0 -1 965 -1314322214 -357621728 1794045155 1409282232
            -1511616894 1732639999 -1198607202 -75785738</internalNodes>
          <leafValues>
            -1.4349707961082458e-001 2.5975281000137329e-001</leafValues></_>
        <_>
          <internalNodes>
            0 -1 275 1689231598 1779412962 -1402617298 -376914032
            1198449013 1917769335 -256298095 -179045789</internalNodes>
          <leafValues>
            -2.4256187677383423e-001 1.4632634818553925e-001</leafValues></_>
        <_>
          <internalNodes>
            0 -1 482 414537129 -1893609094 -755093948 2063466353
            -2034199346 -28600084 181987814 -1705405041</internalNodes>
          <leafValues>
            -1.6550539433956146e-001 2.1692049503326416e-001</leafValues></_>
        <_>
          <internalNodes>
            0 -1 1077 -2094887728 -542415766 1417477682 -939558999
            -1163995638 -1510213061 -1078162302 -51713829</internalNodes>
          <leafValues>
            -1.5120035409927368e-001 2.3785161972045898e-001</leafValues></_>
        <_>
          <internalNodes>
            0 -1 1021 -760851320 -1985592638 -654774576 2049923137
            -683880432 -2017655292 -1218792186 -549931856</internalNodes>
          <leafValues>
            -2.0282684266567230e-001 1.9246831536293030e-001</leafValues></_>
        <_>
          <internalNodes>
            0 -1 519 -365851513 -620766473 -152573765 -492632661
            -146989754 1984001849 -1916765098 1175778417</internalNodes>
          <leafValues>
            -2.1187239885330200e-001 1.6703383624553680e-001</leafValues></_>
        <_>
          <internalNodes>
            0 -1 73 1262804526 129782228 -361047496 544929076 -692519009
            -1969227573 -1646924916 405564992</internalNodes>
          <leafValues>
            -3.2555201649665833e-001 1.1617968976497650e-001</leafValues></_>
        <_>
          <internalNodes>
            0 -1 1429 -157590406 -941668311 -2146342171 -648597847
            -347696502 550342518 1110894047 -351554357</internalNodes>
          <leafValues>
            -1.2709772586822510e-001 2.8951406478881836e-001</leafValues></_>
        <_>
          <internalNodes>
            0 -1 1170 -1215457278 -1909510982 325120244 -339756447
            -21117312 -1195223455 -428424526 -605373474</internalNodes>
          <leafValues>
            -1.5140496194362640e-001 2.3813445866107941e-001</leafValues></_>
        <_>
          <internalNodes>
            0 -1 1322 -1338368375 -490698198 -459019294 115587556
            -1682263296 997097344 1052688026 -93586438</internalNodes>
          <leafValues>
            -1.5533763170242310e-001 2.2712564468383789e-001</leafValues></_>
        <_>
          <internalNodes>
            0 -1 14 75497634 -1349916768 47873381 1655258824 1843729616
            943716683 -809856853 90892639</internalNodes>
          <leafValues>
            -3.4584400057792664e-001 1.0494180768728256e-001</leafValues></_>
        <_>
          <internalNodes>
            0 -1 993 1811715406 -1321863722 -1791083576 1309244400
            -1395210729 -831007746 -206234345 341236067</internalNodes>
          <leafValues>
            -2.2452405095100403e-001 1.5856415033340454e-001</leafValues></_>
        <_>
          <internalNodes>
            0 -1 317 666872386 36429634 -755176922 -2035980878
            -499363068 1102806105 -1537252229 1442446899</internalNodes>
          <leafValues>
            -4.0112727880477905e-001 9.0827450156211853e-002</leafValues></_>
        <_>
          <internalNodes>
            0 -1 486 -1297633118 -219229304 -1603963340 -238061454
            -1522618360 -1970784473 -280474625 -540366627</internalNodes>
          <leafValues>
            -1.5594705939292908e-001 2.5161233544349670e-001</leafValues></_>
        <_>
          <internalNodes>
            0 -1 406 -1483821022 -664915998 -1292563414 2049965800
            -474278390 -703652651 -1821269430 -157564502</internalNodes>
          <leafValues>
            -1.5920153260231018e-001 2.2874917089939117e-001</leafValues></_>
        <_>
          <internalNodes>
            0 -1 1306 440341248 1033490151 -1497651956 -844997291
            -1183501520 -1107312951 -118351340 -1970135018</internalNodes>
          <leafValues>
            -2.5803446769714355e-001 1.4014457166194916e-001</leafValues></_>
        <_>
          <internalNodes>
            0 -1 1112 -72691070 -47563576 -402006044 -681628758
            -1125976378 -455191184 -1546456149 -12001640</internalNodes>
          <leafValues>
            -1.3504615426063538e-001 2.7297809720039368e-001</leafValues></_>
        <_>
          <internalNodes>
            0 -1 917 -1131474750 -303439424 -1260608640 -758158616
            -80035838 -2037418188 1533270750 -760575846</internalNodes>
          <leafValues>
            -1.5982423722743988e-001 2.2487443685531616e-001</leafValues></_>
        <_>
          <internalNodes>
            0 -1 839 -1616298294 -543558432 2062478400 -134278971
            -12677986 -521158380 2080327142 -4205926</internalNodes>
          <leafValues>
            -1.2432458251714706e-001 2.9857754707336426e-001</leafValues></_>
        <_>
          <internalNodes>
            0 -1 388 67142656 -311374559 -504156332 -846104700
            -1006576572 1585327965 1951170444 2101375688</internalNodes>
          <leafValues>
            -4.2495402693748474e-001 9.0514704585075378e-002</leafValues></_>
        <_>
          <internalNodes>
            0 -1 707 871061128 249291748 -17334746 -266667375 1534542404
            1074479957 -806617324 1088216819</internalNodes>
          <leafValues>
            -3.8487944006919861e-001 9.1822728514671326e-002</leafValues></_>
        <_>
          <internalNodes>
            0 -1 639 -1165289816 1644121834 736109777 -262595055
            -1579245022 1779378188 -1570712094 -67460933</internalNodes>
          <leafValues>
            -1.5836767852306366e-001 2.3479487001895905e-001</leafValues></_>
        <_>
          <internalNodes>
            0 -1 969 -273628026 -154197952 887793331 -656455076
            239239812 -1413586017 -539438597 -609697656</internalNodes>
          <leafValues>
            -1.5846881270408630e-001 2.3170506954193115e-001</leafValues></_>
        <_>
          <internalNodes>
            0 -1 68 -416371098 -859559546 -1972605730 -1473448012
            -1620191233 -12771685 1006775806 893634596</internalNodes>
          <leafValues>
            -2.3105053603649139e-001 1.5740427374839783e-001</leafValues></_>
        <_>
          <internalNodes>
            0 -1 631 -326957878 -207396414 -758228974 -241464598
            -1954823546 -1428263713 408199619 -71584116</internalNodes>
          <leafValues>
            -1.4185704290866852e-001 2.6069536805152893e-001</leafValues></_>
        <_>
          <internalNodes>
            0 -1 280 1067413386 707749164 -1171456990 1787023328
            1261366287 654533699 1375434501 1389886975</internalNodes>
          <leafValues>
            -3.9359506964683533e-001 9.3588367104530334e-002</leafValues></_>
        <_>
          <internalNodes>
            0 -1 645 2132488314 -7457112 1832573098 -551031071
            -629270896 250482531 1107211187 -103841569</internalNodes>
          <leafValues>
            -1.3407769799232483e-001 2.7503815293312073e-001</leafValues></_>
        <_>
          <internalNodes>
            0 -1 168 67110912 -1542930870 42276984 -1561677590
            1994656284 283541474 290304348 297696104</internalNodes>
          <leafValues>
            -4.9084448814392090e-001 7.4677295982837677e-002</leafValues></_>
        <_>
          <internalNodes>
            0 -1 804 -677407072 -570470776 -1793186428 -40052023
            -1577152292 541900117 -742435870 -885750784</internalNodes>
          <leafValues>
            -1.7106184363365173e-001 2.1605679392814636e-001</leafValues></_>
        <_>
          <internalNodes>
            0 -1 867 -1879331326 -1437881557 1352381536 1647637728
            -1534110393 1422756587 -1000741422 1084387257</internalNodes>
          <leafValues>
            -3.3828008174896240e-001 1.0956945270299911e-001</leafValues></_>
        <_>
          <internalNodes>
            0 -1 398 2072611330 1661974472 -835402672 -204751627
            1677694036 171182928 -804826908 -134422310</internalNodes>
          <leafValues>
            -1.6626439988613129e-001 2.1580868959426880e-001</leafValues></_>
        <_>
          <internalNodes>
            0 -1 745 -173943599 -1108483151 720103042 -791831355
            -1301479985 531849051 -10561797 -1085543247</internalNodes>
          <leafValues>
            -1.2053068727254868e-001 2.9234442114830017e-001</leafValues></_>
        <_>
          <internalNodes>
            0 -1 835 -1863291872 338239824 1686757960 181218420
            645293596 -1511088374 341349126 436207808</internalNodes>
          <leafValues>
            -3.7462928891181946e-001 9.9031753838062286e-002</leafValues></_></weakClassifiers></_>
    <!-- stage 1 -->
    <_>
      <maxWeakCount>209</maxWeakCount>
      <stageThreshold>-3.1583628058433533e-001</stageThreshold>
      <weakClassifiers>
        <_>
          <internalNodes>
            0 -1 254 -18 -1074790486 -1897428480 -4194331 -524289
            -68157521 -16777233 -17</internalNodes>
          <leafValues>
            -4.5136937499046326e-001 2.6966122910380363e-002</leafValues></_>
        <_>
          <internalNodes>
            0 -1 887 -4194326 -1175716117 -14817022 -1073743874
            -1632706814 1073413627 -590014 -134217737</internalNodes>
          <leafValues>
            -2.0696333050727844e-001 1.7789694666862488e-001</leafValues></_>
        <_>
          <internalNodes>
            0 -1 42 -296817274 -1934741330 -355564460 1190063612
            2146826741 1577038795 -33763851 1157583359</internalNodes>
          <leafValues>
            -2.6581436395645142e-001 1.2083468586206436e-001</leafValues></_>
        <_>
          <internalNodes>
            0 -1 544 -335544322 -1208091660 -20185116 -424738828
            1207826933 220640772 -13107244 -33554444</internalNodes>
          <leafValues>
            -1.6304542124271393e-001 1.6838860511779785e-001</leafValues></_>
        <_>
          <internalNodes>
            0 -1 479 -8021525 791362688 -492975390 1946154672 -25930552
            311604040 -263661870 1422161728</internalNodes>
          <leafValues>
            -1.2742882966995239e-001 1.8793354928493500e-001</leafValues></_>
        <_>
          <internalNodes>
            0 -1 218 -1619826898 115797870 -1426325920 46331744
            1987996677 1081146703 -672696508 1080098624</internalNodes>
          <leafValues>
            -4.5393502712249756e-001 6.2622874975204468e-002</leafValues></_>
        <_>
          <internalNodes>
            0 -1 894 -5383446 -948998202 -1160417280 1942872037
            -672282362 1193627215 1995110359 -213656065</internalNodes>
          <leafValues>
            -1.5621584653854370e-001 1.5560081601142883e-001</leafValues></_>
        <_>
          <internalNodes>
            0 -1 513 -1728770048 -1347815425 109031611 2013260023
            -740459041 401947134 -613156889 603455223</internalNodes>
          <leafValues>
            -1.8173758685588837e-001 1.3086009025573730e-001</leafValues></_>
        <_>
          <internalNodes>
            0 -1 311 -479492470 -898891836 -1232154592 -1024722204
            -1082658046 -498435040 -144706782 -783027946</internalNodes>
          <leafValues>
            -1.4428566396236420e-001 1.6334863007068634e-001</leafValues></_>
        <_>
          <internalNodes>
            0 -1 115 -282335346 -834211890 -1598200126 -357634322
            2137815630 1715330930 1962882934 -142609577</internalNodes>
          <leafValues>
            -1.6990363597869873e-001 1.3155192136764526e-001</leafValues></_>
        <_>
          <internalNodes>
            0 -1 820 -1021259544 -75274040 1459540000 1539964545
            1017702474 101501965 1447876607 -1219807749</internalNodes>
          <leafValues>
            -1.5057560801506042e-001 1.4728154242038727e-001</leafValues></_>
        <_>
          <internalNodes>
            0 -1 1071 -73170806 -811533438 -1964574176 -219452608
            -1217468214 -2130807485 -1761831445 -74721394</internalNodes>
          <leafValues>
            -1.0064180940389633e-001 2.2243416309356689e-001</leafValues></_>
        <_>
          <internalNodes>
            0 -1 74 1823425542 1722810177 -352934172 -2005142682
            1449555523 877557757 2011648514 1375207248</internalNodes>
          <leafValues>
            -3.3475852012634277e-001 5.6810121983289719e-002</leafValues></_>
        <_>
          <internalNodes>
            0 -1 1295 723500800 1404754843 -201346925 2033684415
            745850372 -1518623041 1035982800 196321082</internalNodes>
          <leafValues>
            -1.7807371914386749e-001 1.2062267959117889e-001</leafValues></_>
        <_>
          <internalNodes>
            0 -1 971 465509098 176223816 -1291849120 582221813
            -1083881530 71597918 352167923 1406925812</internalNodes>
          <leafValues>
            -1.8901690840721130e-001 1.1151744425296783e-001</leafValues></_>
        <_>
          <internalNodes>
            0 -1 112 -144900814 198633312 -461457678 1608433598
            1062005541 1845423222 1616698425 1423726292</internalNodes>
          <leafValues>
            -2.0798705518245697e-001 1.0114877671003342e-001</leafValues></_>
        <_>
          <internalNodes>
            0 -1 1028 -1962985720 677666767 -218197504 1107492544
            486504004 1190354204 -240650432 1089599959</internalNodes>
          <leafValues>
            -3.6074191331863403e-001 4.9339421093463898e-002</leafValues></_>
        <_>
          <internalNodes>
            0 -1 818 -1330550 -72403008 -357894495 1944792048
            -1111565234 50264384 -151063593 -613698341</internalNodes>
          <leafValues>
            -9.2912353575229645e-002 2.2251576185226440e-001</leafValues></_>
        <_>
          <internalNodes>
            0 -1 307 -1477049598 33877806 112674472 -525599115
            2138520903 1145438105 1977054565 1348841751</internalNodes>
          <leafValues>
            -3.7100061774253845e-001 5.7582598179578781e-002</leafValues></_>
        <_>
          <internalNodes>
            0 -1 833 -1153442584 -651668244 -88091040 1940651377
            -1076247860 222723404 -1763846313 -207672967</internalNodes>
          <leafValues>
            -1.2536893784999847e-001 1.5987081825733185e-001</leafValues></_>
        <_>
          <internalNodes>
            0 -1 626 -205539702 -605354944 1859022400 -201336432
            -1078012348 -269660579 -134285550 -137645944</internalNodes>
          <leafValues>
            -1.0264856368303299e-001 2.0154781639575958e-001</leafValues></_>
        <_>
          <internalNodes>
            0 -1 11 744498788 774842689 -1092739083 -1431307417
            -1242218915 -1459692064 -1086408646 2120562430</internalNodes>
          <leafValues>
            -2.4156695604324341e-001 8.5882835090160370e-002</leafValues></_>
        <_>
          <internalNodes>
            0 -1 1389 -72644981 -490034454 -1187797886 1371256650
            -546078080 14293876 -229706030 -1050215189</internalNodes>
          <leafValues>
            -1.0983277112245560e-001 1.8490988016128540e-001</leafValues></_>
        <_>
          <internalNodes>
            0 -1 120 -2140360710 1885213750 1531473196 -137487870
            486232863 1449070138 355869714 2013213252</internalNodes>
          <leafValues>
            -1.6420948505401611e-001 1.2304311990737915e-001</leafValues></_>
        <_>
          <internalNodes>
            0 -1 1323 -285212917 -1572842069 -287840000 -2030321928
            -412090553 73656685 -15040 -973341735</internalNodes>
          <leafValues>
            -1.5909069776535034e-001 1.2452827394008636e-001</leafValues></_>
        <_>
          <internalNodes>
            0 -1 782 -1556108374 -357593202 1521487364 -665977100
            -1824607230 778704192 2012608211 -608176910</internalNodes>
          <leafValues>
            -1.0950137674808502e-001 1.7265217006206512e-001</leafValues></_>
        <_>
          <internalNodes>
            0 -1 176 -1366578038 1457585144 -23912684 -130914665
            1438069524 1963736560 1968903031 274757670</internalNodes>
          <leafValues>
            -1.9962537288665771e-001 9.6661008894443512e-002</leafValues></_>
        <_>
          <internalNodes>
            0 -1 947 -1280601912 -924418080 -84214688 1917582672
            -194734900 1080971593 -1267177497 925686264</internalNodes>
          <leafValues>
            -1.6889838874340057e-001 1.1102295666933060e-001</leafValues></_>
        <_>
          <internalNodes>
            0 -1 896 1017714920 -537175158 1996075680 -202671632
            -1369748788 252532054 -688332081 -143612452</internalNodes>
          <leafValues>
            -1.3043776154518127e-001 1.5086425840854645e-001</leafValues></_>
        <_>
          <internalNodes>
            0 -1 684 1188505596 -855836184 -1115853024 1090836308
            1484473444 2122199756 2080171716 1078228816</internalNodes>
          <leafValues>
            -2.8621840476989746e-001 6.4545460045337677e-002</leafValues></_>
        <_>
          <internalNodes>
            0 -1 1349 1032011810 544170238 -420897504 1084620528
            -2107903970 115535126 1877325734 -764418598</internalNodes>
          <leafValues>
            -1.3470302522182465e-001 1.4152528345584869e-001</leafValues></_>
        <_>
          <internalNodes>
            0 -1 1051 -1393610974 -2112970758 -1360333278 47447988
            400549383 1087891421 -2132818880 1089836951</internalNodes>
          <leafValues>
            -2.8326982259750366e-001 6.8409465253353119e-002</leafValues></_>
        <_>
          <internalNodes>
            0 -1 39 1258161406 -590865170 1520851086 -712212740
            1610607871 -437142679 1979711359 1469920492</internalNodes>
          <leafValues>
            -1.6781654953956604e-001 1.1558146774768829e-001</leafValues></_>
        <_>
          <internalNodes>
            0 -1 914 -576661312 -339013720 1558172352 -314636
            -1078024678 1722547532 -1879264346 -672144897</internalNodes>
          <leafValues>
            -1.0081374645233154e-001 1.9828499853610992e-001</leafValues></_>
        <_>
          <internalNodes>
            0 -1 636 -93661982 -374618272 1785098848 1474783937
            -1225072122 4603172 -1217630190 -116264744</internalNodes>
          <leafValues>
            -1.2284785509109497e-001 1.5681643784046173e-001</leafValues></_>
        <_>
          <internalNodes>
            0 -1 1022 1064129736 -1446350968 1996483106 -211061001
            -1400979829 1162026251 -1343553793 -216271380</internalNodes>
          <leafValues>
            -1.1933996528387070e-001 1.6539600491523743e-001</leafValues></_>
        <_>
          <internalNodes>
            0 -1 191 1722508298 1753367396 -2063604128 -1464369796
            -805600957 363715575 1886868227 1615918439</internalNodes>
          <leafValues>
            -3.7189751863479614e-001 5.6069847196340561e-002</leafValues></_>
        <_>
          <internalNodes>
            0 -1 49 -857544986 2120850748 -115708335 -41641474
            -285627714 -8624363 1963300506 84344958</internalNodes>
          <leafValues>
            -1.6063642501831055e-001 1.1969362944364548e-001</leafValues></_>
        <_>
          <internalNodes>
            0 -1 832 2066570442 -82875178 1520390848 -72386819
            -1160337208 -2047542922 -85985409 -67396102</internalNodes>
          <leafValues>
            -8.4540694952011108e-002 2.2918131947517395e-001</leafValues></_>
        <_>
          <internalNodes>
            0 -1 1129 770672512 262574922 -998835680 547553186 119150084
            69524807 -220313600 1077215168</internalNodes>
          <leafValues>
            -3.7610387802124023e-001 5.2203174680471420e-002</leafValues></_>
        <_>
          <internalNodes>
            0 -1 1440 -3437853 -1479963734 -2111345728 1154332908
            -135404062 110025332 -136477998 -807404385</internalNodes>
          <leafValues>
            -9.2574797570705414e-002 2.1193143725395203e-001</leafValues></_>
        <_>
          <internalNodes>
            0 -1 972 329810080 1223636864 -1574297952 1377691122
            1866250767 1248776003 -1081165870 -151788326</internalNodes>
          <leafValues>
            -1.2707568705081940e-001 1.5177690982818604e-001</leafValues></_>
        <_>
          <internalNodes>
            0 -1 607 -1124061976 495745209 -898315948 -2000602047
            -115326436 -357672318 -333644188 104871360</internalNodes>
          <leafValues>
            -3.1963598728179932e-001 5.9266492724418640e-002</leafValues></_>
        <_>
          <internalNodes>
            0 -1 648 1479504064 4368676 -1256212832 44314710 843206436
            69470736 1408532452 1999618008</internalNodes>
          <leafValues>
            -2.4798102676868439e-001 7.6184824109077454e-002</leafValues></_>
        <_>
          <internalNodes>
            0 -1 1164 -1279535430 -158394654 -294061024 1374803445
            -94590244 -480872835 -1208486245 -202640902</internalNodes>
          <leafValues>
            -8.5316956043243408e-002 2.2770459949970245e-001</leafValues></_>
        <_>
          <internalNodes>
            0 -1 442 -1536228734 -895046110 1318888066 -756158492
            527922448 167759175 920811030 -242016144</internalNodes>
          <leafValues>
            -1.5912492573261261e-001 1.2167346477508545e-001</leafValues></_>
        <_>
          <internalNodes>
            0 -1 1115 -148060024 -626009653 1580187328 -67510807
            -1073836914 -2034868609 -1862880558 -68177971</internalNodes>
          <leafValues>
            -9.3863740563392639e-002 2.0529940724372864e-001</leafValues></_>
        <_>
          <internalNodes>
            0 -1 202 -1427427674 -1502956146 -856794482 -354251028
            -435816889 1730370309 -1594465708 -170397642</internalNodes>
          <leafValues>
            -1.9314661622047424e-001 1.0321260243654251e-001</leafValues></_>
        <_>
          <internalNodes>
            0 -1 925 1024 1065939451 -2031334430 1248816463 1396053830
            -725046126 1525964738 426050786</internalNodes>
          <leafValues>
            -3.3859813213348389e-001 5.6850086897611618e-002</leafValues></_>
        <_>
          <internalNodes>
            0 -1 405 -600706334 -1161625364 2126963842 -459066645
            -1263092341 1358835662 48001265 1475556989</internalNodes>
          <leafValues>
            -1.7523370683193207e-001 1.1558876186609268e-001</leafValues></_>
        <_>
          <internalNodes>
            0 -1 564 -1964388864 182641418 988492330 48837860
            -1048902080 83393015 -1025974160 1887225712</internalNodes>
          <leafValues>
            -3.5508152842521667e-001 5.4611667990684509e-002</leafValues></_>
        <_>
          <internalNodes>
            0 -1 760 -1178624374 -134271838 -1430293280 -77652796
            -1762613158 1723575249 -1090587177 -672451126</internalNodes>
          <leafValues>
            -1.0320770740509033e-001 2.0159874856472015e-001</leafValues></_>
        <_>
          <internalNodes>
            0 -1 819 -1791206934 -13648608 -83959022 -205684879
            -1097013554 783277660 -1293748230 -21842467</internalNodes>
          <leafValues>
            -1.0711320489645004e-001 1.8247959017753601e-001</leafValues></_>
        <_>
          <internalNodes>
            0 -1 670 -1332094840 -877981888 2040719522 -243403339
            -1744905190 -479085691 -634064541 1495866672</internalNodes>
          <leafValues>
            -1.5114840865135193e-001 1.2845012545585632e-001</leafValues></_>
        <_>
          <internalNodes>
            0 -1 139 680471270 -1431523392 -1302011742 -526207884
            1465074741 641666102 1712742976 1724840517</internalNodes>
          <leafValues>
            -3.5349136590957642e-001 5.6387994438409805e-002</leafValues></_>
        <_>
          <internalNodes>
            0 -1 1461 -1641050110 779346474 1656033316 167635661
            2114954242 37605750 100971014 1346759418</internalNodes>
          <leafValues>
            -1.8902143836021423e-001 1.0363214462995529e-001</leafValues></_>
        <_>
          <internalNodes>
            0 -1 1168 -1648518968 1860566912 -1568965728 1944156896
            -522848634 -2030392273 -693196805 -13977349</internalNodes>
          <leafValues>
            -1.0759966075420380e-001 1.8262757360935211e-001</leafValues></_>
        <_>
          <internalNodes>
            0 -1 817 -1879226848 586038992 -158911198 49281317
            -2046856188 375902012 1457386514 1350893300</internalNodes>
          <leafValues>
            -3.5330063104629517e-001 5.5903241038322449e-002</leafValues></_>
        <_>
          <internalNodes>
            0 -1 1056 1482569216 1012401391 1121151904 -1277137192
            1021028868 703117611 2016737092 235681332</internalNodes>
          <leafValues>
            -3.0684176087379456e-001 6.1384640634059906e-002</leafValues></_>
        <_>
          <internalNodes>
            0 -1 808 2142035160 -783524120 -893579102 -235177739
            -1173300543 -1483117222 -680872229 -1692707449</internalNodes>
          <leafValues>
            -1.1751124262809753e-001 1.7053632438182831e-001</leafValues></_>
        <_>
          <internalNodes>
            0 -1 1031 1059987114 -488448222 -16994718 49930696
            -1214206966 121810804 -2128959310 -75848744</internalNodes>
          <leafValues>
            -1.4145460724830627e-001 1.4098736643791199e-001</leafValues></_>
        <_>
          <internalNodes>
            0 -1 1067 2074215464 -1611753222 -687906240 2067480572
            -1245789562 -1497735614 -1157826721 -205804102</internalNodes>
          <leafValues>
            -1.1977990716695786e-001 1.6719520092010498e-001</leafValues></_>
        <_>
          <internalNodes>
            0 -1 900 1368163456 -1232166 1687629472 -67245060
            -1141990056 1203221791 -1882130962 -22036744</internalNodes>
          <leafValues>
            -1.1186704784631729e-001 1.7922733724117279e-001</leafValues></_>
        <_>
          <internalNodes>
            0 -1 351 -338720118 -525342294 -1858195390 -129155602
            -17119224 602526348 1429728018 -217992838</internalNodes>
          <leafValues>
            -1.2180664390325546e-001 1.6215017437934875e-001</leafValues></_>
        <_>
          <internalNodes>
            0 -1 327 -2039653842 715521004 -285850974 1659567854
            -277198251 72293247 -733793728 1624142172</internalNodes>
          <leafValues>
            -3.7822559475898743e-001 5.2308317273855209e-002</leafValues></_>
        <_>
          <internalNodes>
            0 -1 20 -70657910 -677779800 -318899231 1732769336 248427130
            1742370688 1411441334 534483898</internalNodes>
          <leafValues>
            -1.3185201585292816e-001 1.5060400962829590e-001</leafValues></_>
        <_>
          <internalNodes>
            0 -1 837 -23251262 -32608094 -1145593628 -741481864
            -496243904 128120061 1061087978 -67389512</internalNodes>
          <leafValues>
            -1.0307428240776062e-001 1.8844085931777954e-001</leafValues></_>
        <_>
          <internalNodes>
            0 -1 915 2065600234 -215386396 -992036192 -67373891
            -1076832862 1650744958 653583090 -205871654</internalNodes>
          <leafValues>
            -1.2408521026372910e-001 1.6163432598114014e-001</leafValues></_>
        <_>
          <internalNodes>
            0 -1 1131 -1248240416 -525768732 1724545696 -522233203
            -1149454758 1189932622 -1737582858 -605381378</internalNodes>
          <leafValues>
            -1.2481553852558136e-001 1.6213041543960571e-001</leafValues></_>
        <_>
          <internalNodes>
            0 -1 1173 1403539648 1831358306 989265482 -1973197087
            870237128 609917292 2124863231 -963734296</internalNodes>
          <leafValues>
            -1.4593899250030518e-001 1.3766610622406006e-001</leafValues></_>
        <_>
          <internalNodes>
            0 -1 15 741017088 -1000056974 -919330762 574061491
            2103556951 282275825 1142255986 680439</internalNodes>
          <leafValues>
            -2.9200387001037598e-001 6.9917455315589905e-002</leafValues></_>
        <_>
          <internalNodes>
            0 -1 162 -1613440564 -1960105144 766699008 1747827616
            1927071427 118457945 1984250740 1392766513</internalNodes>
          <leafValues>
            -1.9197176396846771e-001 1.0240821540355682e-001</leafValues></_>
        <_>
          <internalNodes>
            0 -1 29 205784232 776217978 1341391768 208940598 -1808433198
            1804522888 1617713838 209465392</internalNodes>
          <leafValues>
            -3.6763650178909302e-001 5.3479693830013275e-002</leafValues></_>
        <_>
          <internalNodes>
            0 -1 80 -363863129 -191894582 -269004952 -181993616
            2142593284 935223163 -402962905 -160631456</internalNodes>
          <leafValues>
            -1.3564446568489075e-001 1.5897028148174286e-001</leafValues></_>
        <_>
          <internalNodes>
            0 -1 964 -677854484 -405190528 -1474178430 -370157984
            -1328746246 -1275097528 282481246 -1374019</internalNodes>
          <leafValues>
            -1.2057386338710785e-001 1.6694493591785431e-001</leafValues></_>
        <_>
          <internalNodes>
            0 -1 86 -487068721 -1565857810 75492196 -205080700 662680951
            1164336950 -8637658 -168886444</internalNodes>
          <leafValues>
            -1.4019499719142914e-001 1.4132094383239746e-001</leafValues></_>
        <_>
          <internalNodes>
            0 -1 1167 -767711542 -1331518548 -496307216 -1562645900
            -1362053500 -1481122324 1999040047 -1153823490</internalNodes>
          <leafValues>
            -1.1748211830854416e-001 1.6688065230846405e-001</leafValues></_>
        <_>
          <internalNodes>
            0 -1 285 -327158825 -1976771120 -1309673506 1473675222
            68158932 237181298 978565196 1155250812</internalNodes>
          <leafValues>
            -1.5633611381053925e-001 1.2497254461050034e-001</leafValues></_>
        <_>
          <internalNodes>
            0 -1 1207 1549344308 -1510120895 1473794424 965017499
            1059930016 -1650579351 230125308 123830152</internalNodes>
          <leafValues>
            -2.0531876385211945e-001 9.5057569444179535e-002</leafValues></_>
        <_>
          <internalNodes>
            0 -1 1222 -1489562368 177396236 647550946 180969928
            1860002116 1083177302 100623728 79097787</internalNodes>
          <leafValues>
            -2.7378389239311218e-001 7.2283282876014709e-002</leafValues></_>
        <_>
          <internalNodes>
            0 -1 771 -96791390 -1680925976 1714450016 -203967355
            -1179884918 -492012460 1802810070 -247752773</internalNodes>
          <leafValues>
            -1.0580981522798538e-001 1.8612258136272430e-001</leafValues></_>
        <_>
          <internalNodes>
            0 -1 240 335546368 202171716 1177691270 975633730 309644996
            1533018071 834414692 942894921</internalNodes>
          <leafValues>
            -4.3356171250343323e-001 4.6245872974395752e-002</leafValues></_>
        <_>
          <internalNodes>
            0 -1 865 -115024129 -1246776840 -754977042 -1411517239
            -201828285 -1694503275 -160275713 389240604</internalNodes>
          <leafValues>
            -1.1342857778072357e-001 1.9162151217460632e-001</leafValues></_>
        <_>
          <internalNodes>
            0 -1 635 539489006 -1433765014 2062239970 15456602
            1253982471 83126797 217789538 2737669</internalNodes>
          <leafValues>
            -3.0759155750274658e-001 6.5873697400093079e-002</leafValues></_>
        <_>
          <internalNodes>
            0 -1 754 -1943178048 -3788954 -228762558 1945467505
            -1362311990 61660935 -16862249 -1317954336</internalNodes>
          <leafValues>
            -1.3764980435371399e-001 1.4742232859134674e-001</leafValues></_>
        <_>
          <internalNodes>
            0 -1 988 -1812034272 -424425081 586606114 -1461190707
            -858069490 1821945793 -1227236540 -756490874</internalNodes>
          <leafValues>
            -1.9000108540058136e-001 1.0649488121271133e-001</leafValues></_>
        <_>
          <internalNodes>
            0 -1 633 2078807208 -1043450366 -855887328 -978483736
            567714496 614920001 -1645456174 -1278214478</internalNodes>
          <leafValues>
            -1.3484117388725281e-001 1.4766421914100647e-001</leafValues></_>
        <_>
          <internalNodes>
            0 -1 1016 1450727620 1533568424 274723490 290717237
            -1695508986 1136932738 1751209634 80580845</internalNodes>
          <leafValues>
            -1.9321252405643463e-001 1.0500320792198181e-001</leafValues></_>
        <_>
          <internalNodes>
            0 -1 500 1605354147 -341590218 2056738278 2051784020
            874162698 -1483807404 1450304290 -76808482</internalNodes>
          <leafValues>
            -9.7229801118373871e-002 2.1187379956245422e-001</leafValues></_>
        <_>
          <internalNodes>
            0 -1 510 134224960 -1913357327 761347685 417849729 879771224
            -32522367 1961175373 1397515842</internalNodes>
          <leafValues>
            -2.9703572392463684e-001 6.8330697715282440e-002</leafValues></_>
        <_>
          <internalNodes>
            0 -1 1136 -1699376512 -1544851670 -1703251776 -109610850
            -1155599282 -1926045854 1013037022 -607397637</internalNodes>
          <leafValues>
            -1.0696195811033249e-001 1.9508033990859985e-001</leafValues></_>
        <_>
          <internalNodes>
            0 -1 94 205432504 -928902264 -1093866863 -1672988438
            -853730373 2028041436 -1309040571 392249604</internalNodes>
          <leafValues>
            -2.2232767939567566e-001 9.3412265181541443e-002</leafValues></_>
        <_>
          <internalNodes>
            0 -1 1130 -1196833144 -1563622420 -1403222397 -221258512
            381396690 -1485382388 -764678006 -70544262</internalNodes>
          <leafValues>
            -1.1241050809621811e-001 1.8438854813575745e-001</leafValues></_>
        <_>
          <internalNodes>
            0 -1 849 -1983049214 145586593 -830828992 -1029267743
            782201154 58666799 1961508448 -1950352272</internalNodes>
          <leafValues>
            -1.8661402165889740e-001 1.1079453676939011e-001</leafValues></_>
        <_>
          <internalNodes>
            0 -1 252 1277201568 -1408204920 -461598848 -1504952572
            2012015676 800876114 -332595544 12870932</internalNodes>
          <leafValues>
            -4.5291036367416382e-001 4.7143962234258652e-002</leafValues></_>
        <_>
          <internalNodes>
            0 -1 1078 -659861338 -1148503664 -92288890 -747897885
            1981126222 -388533437 -1096506165 -875579492</internalNodes>
          <leafValues>
            -1.1027642339468002e-001 1.9039672613143921e-001</leafValues></_>
        <_>
          <internalNodes>
            0 -1 936 1767085954 555155428 837904930 11517923 1591687024
            1444613954 -1409628220 76805195</internalNodes>
          <leafValues>
            -2.6542875170707703e-001 7.9154551029205322e-002</leafValues></_>
        <_>
          <internalNodes>
            0 -1 673 -1220713312 -1281319166 1980759264 -779680056
            -1217438650 -163627912 -84115805 -417770092</internalNodes>
          <leafValues>
            -1.3881762325763702e-001 1.5016496181488037e-001</leafValues></_>
        <_>
          <internalNodes>
            0 -1 1395 -627077246 -2102363917 1605560008 -1964389656
            -1634732670 -1056356608 -1951211829 -1029843798</internalNodes>
          <leafValues>
            -1.1347893625497818e-001 1.8665054440498352e-001</leafValues></_>
        <_>
          <internalNodes>
            0 -1 542 -93648760 -141661232 2116246656 -615121000
            569978378 -828541846 -1841572586 -672170574</internalNodes>
          <leafValues>
            -1.1552590131759644e-001 1.7730520665645599e-001</leafValues></_>
        <_>
          <internalNodes>
            0 -1 328 1879042827 -429703218 -421895570 -1084032869
            2146657237 1434154343 -320375034 -209848525</internalNodes>
          <leafValues>
            -1.3003148138523102e-001 1.5847352147102356e-001</leafValues></_>
        <_>
          <internalNodes>
            0 -1 440 1839169730 -675875032 -938160474 -755065324
            1072780391 1867955549 2096901940 -753842880</internalNodes>
          <leafValues>
            -1.5881718695163727e-001 1.2987962365150452e-001</leafValues></_>
        <_>
          <internalNodes>
            0 -1 107 1674545834 -349208690 619943138 -2042699787
            -311967921 1876557356 1979700919 1143863255</internalNodes>
          <leafValues>
            -2.7452158927917480e-001 7.4295565485954285e-002</leafValues></_>
        <_>
          <internalNodes>
            0 -1 1453 -24076600 1604677516 -1158392188 1213007084
            -1454486006 711772231 115275514 1126938873</internalNodes>
          <leafValues>
            -1.5925402939319611e-001 1.2873089313507080e-001</leafValues></_>
        <_>
          <internalNodes>
            0 -1 665 -626116635 1803759482 -219797976 -223154475
            -1647718405 -251732148 -976245183 -536743824</internalNodes>
          <leafValues>
            -1.2686680257320404e-001 1.6558796167373657e-001</leafValues></_>
        <_>
          <internalNodes>
            0 -1 70 -1393590110 -1970278290 -1965442944 -455086353
            1387617349 1736194937 -153718156 1450573781</internalNodes>
          <leafValues>
            -3.6248612403869629e-001 5.8403998613357544e-002</leafValues></_>
        <_>
          <internalNodes>
            0 -1 1333 -1425177432 136479880 -2011063936 1749370824
            1853498970 109813248 945058478 1174761928</internalNodes>
          <leafValues>
            -2.1414402127265930e-001 9.5503792166709900e-002</leafValues></_>
        <_>
          <internalNodes>
            0 -1 1308 -1957446112 -1913164657 -608822300 13950906
            -1310245116 -48366081 116834496 118515848</internalNodes>
          <leafValues>
            -2.1875268220901489e-001 9.2144951224327087e-002</leafValues></_>
        <_>
          <internalNodes>
            0 -1 752 -779507576 -265419354 -89230336 1775203859
            -1564612562 -2031200321 -196020250 -82271049</internalNodes>
          <leafValues>
            -1.1906684190034866e-001 1.7382259666919708e-001</leafValues></_>
        <_>
          <internalNodes>
            0 -1 24 1852189302 -257676622 450480857 -134821894
            -394456130 -144032964 391731320 517949820</internalNodes>
          <leafValues>
            -1.7743541300296783e-001 1.1587341874837875e-001</leafValues></_>
        <_>
          <internalNodes>
            0 -1 1217 236554794 49062180 -782233888 539538666 498796112
            218502176 467985253 12089072</internalNodes>
          <leafValues>
            -3.0843502283096313e-001 6.5767817199230194e-002</leafValues></_>
        <_>
          <internalNodes>
            0 -1 672 -167457585 -11964756 -422380494 -205144111
            -1627770260 -1737823939 -1150228750 -202402338</internalNodes>
          <leafValues>
            -8.9461550116539001e-002 2.3579871654510498e-001</leafValues></_>
        <_>
          <internalNodes>
            0 -1 755 1564334274 -616479604 1161576162 562377845
            -1229005662 1780071273 -1525467141 -1220865703</internalNodes>
          <leafValues>
            -1.2884356081485748e-001 1.6425691545009613e-001</leafValues></_>
        <_>
          <internalNodes>
            0 -1 600 -291296728 2106890 -1536244702 537193484 -902713084
            1078359364 1206194752 1073905716</internalNodes>
          <leafValues>
            -4.3598365783691406e-001 4.7563247382640839e-002</leafValues></_>
        <_>
          <internalNodes>
            0 -1 1451 -1223763312 -119403800 215178722 1397309945
            -1378646824 216424193 921106210 1137957040</internalNodes>
          <leafValues>
            -1.6391687095165253e-001 1.2508659064769745e-001</leafValues></_>
        <_>
          <internalNodes>
            0 -1 113 1927604004 1241839396 -926498848 1316265870
            -2041306710 -2051263680 738778806 1414288172</internalNodes>
          <leafValues>
            -2.8838458657264709e-001 7.2224505245685577e-002</leafValues></_>
        <_>
          <internalNodes>
            0 -1 951 -1224780055 952792550 -1695649246 -201852932
            -1096110964 1322104649 -1309746757 -948371715</internalNodes>
          <leafValues>
            -1.1248808354139328e-001 1.8943850696086884e-001</leafValues></_>
        <_>
          <internalNodes>
            0 -1 56 -457309526 -2034395633 1654294240 1459020510
            -965876699 1953834054 1708077668 1649668881</internalNodes>
          <leafValues>
            -2.6576253771781921e-001 7.7868469059467316e-002</leafValues></_>
        <_>
          <internalNodes>
            0 -1 1188 801945856 -744706454 1002141141 1380970056
            1484907052 1007126706 76905436 152173892</internalNodes>
          <leafValues>
            -2.0687694847583771e-001 9.8837584257125854e-002</leafValues></_>
        <_>
          <internalNodes>
            0 -1 1285 837631488 178518944 511458848 1617979909
            -1090794302 425794869 314766290 -1746155346</internalNodes>
          <leafValues>
            -1.4798289537429810e-001 1.3655132055282593e-001</leafValues></_>
        <_>
          <internalNodes>
            0 -1 385 649137408 31398 1940369518 133158499 1448434711
            1861173189 1452630353 91454912</internalNodes>
          <leafValues>
            -3.2737761735916138e-001 6.3062638044357300e-002</leafValues></_>
        <_>
          <internalNodes>
            0 -1 416 -22803006 -1911959570 1994254916 -710185950
            1467752262 1113023747 1901749809 -145330306</internalNodes>
          <leafValues>
            -1.7433561384677887e-001 1.1794161051511765e-001</leafValues></_>
        <_>
          <internalNodes>
            0 -1 1281 -1142974782 1775074990 1321317824 -1712463400
            -1090530930 570617762 1038872462 -639650598</internalNodes>
          <leafValues>
            -9.9658235907554626e-002 2.1167908608913422e-001</leafValues></_>
        <_>
          <internalNodes>
            0 -1 953 1960890560 2039003564 -1065876862 360051566
            1183538759 1661906340 1425273521 1896659967</internalNodes>
          <leafValues>
            -1.9381085038185120e-001 1.0931758582592010e-001</leafValues></_>
        <_>
          <internalNodes>
            0 -1 874 406068332 -878148568 557754084 1658289365
            -249953016 644406494 -1897245741 1786898</internalNodes>
          <leafValues>
            -2.2569456696510315e-001 9.0756975114345551e-002</leafValues></_>
        <_>
          <internalNodes>
            0 -1 1085 1069090786 -1483760660 -1436249535 1890442132
            -80812898 649273300 -1227349021 -1447427</internalNodes>
          <leafValues>
            -1.1466602236032486e-001 1.8005131185054779e-001</leafValues></_>
        <_>
          <internalNodes>
            0 -1 584 514601696 -5251096 -1158858590 -185501764
            -1862277410 21862978 1433531930 1710509533</internalNodes>
          <leafValues>
            -1.6776309907436371e-001 1.2148705124855042e-001</leafValues></_>
        <_>
          <internalNodes>
            0 -1 1170 -1296233280 -1285505880 -1932917148 -84148311
            -160786714 32757601 -5134438 -1285841816</internalNodes>
          <leafValues>
            -1.3140891492366791e-001 1.5726441144943237e-001</leafValues></_>
        <_>
          <internalNodes>
            0 -1 842 -147749246 -1414579640 -1661234442 -470813466
            -1302552048 1811643965 1708451306 -1145049671</internalNodes>
          <leafValues>
            -1.0992976278066635e-001 1.8451407551765442e-001</leafValues></_>
        <_>
          <internalNodes>
            0 -1 98 1097247988 707175406 716999448 -54854834 1605890127
            551530242 842613692 1590179038</internalNodes>
          <leafValues>
            -2.1947586536407471e-001 9.5810905098915100e-002</leafValues></_>
        <_>
          <internalNodes>
            0 -1 907 2100018242 1663794700 1926394496 1927492305
            -540638848 1075900253 -100764041 1354487508</internalNodes>
          <leafValues>
            -2.0512382686138153e-001 1.0114233195781708e-001</leafValues></_>
        <_>
          <internalNodes>
            0 -1 1204 1480759468 -898287912 -232078236 549882614
            -1077090078 -1430356623 -1093545766 -739582756</internalNodes>
          <leafValues>
            -1.2818838655948639e-001 1.6090200841426849e-001</leafValues></_>
        <_>
          <internalNodes>
            0 -1 911 -1175480820 591966986 1929246692 1993244151
            306074949 82582827 -1847602944 1121433561</internalNodes>
          <leafValues>
            -2.7022621035575867e-001 7.5976081192493439e-002</leafValues></_>
        <_>
          <internalNodes>
            0 -1 1301 -5537110 -495327574 1643969797 1103703721
            -272716058 -261353775 -223038750 -1040385388</internalNodes>
          <leafValues>
            -1.1624458432197571e-001 1.7947076261043549e-001</leafValues></_>
        <_>
          <internalNodes>
            0 -1 836 909641888 -144082230 -386018396 -617271976 -578870
            -1932593786 -1243498770 -169201413</internalNodes>
          <leafValues>
            -1.2477330863475800e-001 1.6861018538475037e-001</leafValues></_>
        <_>
          <internalNodes>
            0 -1 539 -903714304 714014630 -356522846 1751822632
            -1346813874 120988229 276579249 1110751136</internalNodes>
          <leafValues>
            -3.2866525650024414e-001 6.4494758844375610e-002</leafValues></_>
        <_>
          <internalNodes>
            0 -1 1434 -552889177 -473256979 683368002 -208820227
            -77492086 250265557 -544547877 -637544450</internalNodes>
          <leafValues>
            -8.1610083580017090e-002 2.6081085205078125e-001</leafValues></_>
        <_>
          <internalNodes>
            0 -1 90 149941284 34484454 -19087776 -2035748886 1675521146
            884341748 1182516758 -463361434</internalNodes>
          <leafValues>
            -3.0111339688301086e-001 6.9843158125877380e-002</leafValues></_>
        <_>
          <internalNodes>
            0 -1 1200 343762448 474668315 -652593248 1327241642
            1456333604 -1896144963 1234690948 886751898</internalNodes>
          <leafValues>
            -2.0401953160762787e-001 1.0299430787563324e-001</leafValues></_>
        <_>
          <internalNodes>
            0 -1 1190 -72830302 -166758933 515302752 -968213311
            -344542508 -404032699 -1817921565 -719659717</internalNodes>
          <leafValues>
            -1.1195667088031769e-001 1.8737852573394775e-001</leafValues></_>
        <_>
          <internalNodes>
            0 -1 831 -1263474496 -1755163136 -1143049470 1391446529
            1870573134 1105718068 535327650 822750380</internalNodes>
          <leafValues>
            -1.9967029988765717e-001 1.0529427975416183e-001</leafValues></_>
        <_>
          <internalNodes>
            0 -1 1054 -144057110 -324477524 -159656281 -102383622
            -1214995203 -1032006807 -689506406 -219154227</internalNodes>
          <leafValues>
            -8.6829274892807007e-002 2.4390272796154022e-001</leafValues></_>
        <_>
          <internalNodes>
            0 -1 799 204477768 -844832832 -1075302720 2113784804
            1583490560 1056336890 910978657 503319824</internalNodes>
          <leafValues>
            -3.9209213852882385e-001 5.5521931499242783e-002</leafValues></_>
        <_>
          <internalNodes>
            0 -1 868 -1368081136 1334114687 -295362396 870920704
            -1373601257 1221327563 -548373556 72471005</internalNodes>
          <leafValues>
            -2.0015533268451691e-001 1.0810295492410660e-001</leafValues></_>
        <_>
          <internalNodes>
            0 -1 173 -111169406 -898584944 -2039379104 455440033
            307967822 -455673588 843511318 306882123</internalNodes>
          <leafValues>
            -1.7038765549659729e-001 1.2654505670070648e-001</leafValues></_>
        <_>
          <internalNodes>
            0 -1 306 564152864 -1509771518 -1332946390 720188563
            995941589 155013464 1021604138 71389445</internalNodes>
          <leafValues>
            -2.8857275843620300e-001 7.1673475205898285e-002</leafValues></_>
        <_>
          <internalNodes>
            0 -1 551 -1306187518 182616938 2010548832 -1494426252
            817695829 668019064 -959875756 1642862278</internalNodes>
          <leafValues>
            -3.2147228717803955e-001 6.2996841967105865e-002</leafValues></_>
        <_>
          <internalNodes>
            0 -1 844 -1564758418 744518506 1197361144 1197683032
            219633184 674424899 -1505365060 4484830</internalNodes>
          <leafValues>
            -2.1918031573295593e-001 9.3594774603843689e-002</leafValues></_>
        <_>
          <internalNodes>
            0 -1 1209 -1192568088 332037930 1790293136 1894759276
            -1531660752 -1497145636 -155931782 -1838240789</internalNodes>
          <leafValues>
            -1.3224720954895020e-001 1.5647609531879425e-001</leafValues></_>
        <_>
          <internalNodes>
            0 -1 503 -1317274131 121033986 -607026988 1937438688
            -1043320180 130335545 485770064 -1627982882</internalNodes>
          <leafValues>
            -1.3224543631076813e-001 1.5649317204952240e-001</leafValues></_>
        <_>
          <internalNodes>
            0 -1 807 -1288173440 -890762452 -157315424 1122589873
            -1255111984 762748223 1547352464 937482284</internalNodes>
          <leafValues>
            -2.0923233032226563e-001 1.0020126402378082e-001</leafValues></_>
        <_>
          <internalNodes>
            0 -1 349 1823539488 -2112698430 -1460192502 -487852442
            48905284 1163328261 1911840884 1882552101</internalNodes>
          <leafValues>
            -3.6023464798927307e-001 5.7150483131408691e-002</leafValues></_>
        <_>
          <internalNodes>
            0 -1 211 226111692 -1356309760 -237219630 -149796484
            1860050759 146688807 98964529 1995571554</internalNodes>
          <leafValues>
            -1.9777533411979675e-001 1.0300865769386292e-001</leafValues></_>
        <_>
          <internalNodes>
            0 -1 1176 527113344 -977903670 241624176 2053896696
            783455360 613203310 -1764166610 -1512454966</internalNodes>
          <leafValues>
            -1.4631231129169464e-001 1.4346535503864288e-001</leafValues></_>
        <_>
          <internalNodes>
            0 -1 174 -1035558400 -522975665 431814439 -1120077364
            -1747152529 1981541725 -1575512358 1881016238</internalNodes>
          <leafValues>
            -1.7895707488059998e-001 1.1642276495695114e-001</leafValues></_>
        <_>
          <internalNodes>
            0 -1 1235 -174537509 -902958602 666877507 -839007496
            -559964766 -269584271 -944197734 -1165371256</internalNodes>
          <leafValues>
            -8.9965961873531342e-002 2.3734372854232788e-001</leafValues></_>
        <_>
          <internalNodes>
            0 -1 468 268438720 -1089347264 1272449632 -2131911948
            986828538 1295606641 548060016 710833989</internalNodes>
          <leafValues>
            -3.3875775337219238e-001 6.2823124229907990e-002</leafValues></_>
        <_>
          <internalNodes>
            0 -1 1086 2067531018 552333307 2119951136 550695824 25120007
            116313447 2015128340 1082054401</internalNodes>
          <leafValues>
            -3.1783288717269897e-001 6.5511763095855713e-002</leafValues></_>
        <_>
          <internalNodes>
            0 -1 1083 1609736370 -101991276 -152000286 1401944060
            -1887855778 -1563984002 -152901670 -1279553045</internalNodes>
          <leafValues>
            -1.0118009150028229e-001 2.0945997536182404e-001</leafValues></_>
        <_>
          <internalNodes>
            0 -1 1155 -1121742206 -434019352 -1430548607 -631269386
            -340070965 -568144117 -837094950 -2139489542</internalNodes>
          <leafValues>
            -1.1295945942401886e-001 1.8832781910896301e-001</leafValues></_>
        <_>
          <internalNodes>
            0 -1 1372 979353136 244074544 693399240 34348846 -1147496290
            -1936765340 1590818324 -741362982</internalNodes>
          <leafValues>
            -1.3788720965385437e-001 1.4954283833503723e-001</leafValues></_>
        <_>
          <internalNodes>
            0 -1 0 -1077255990 -655817088 638088672 -858784286
            -1592894322 -1315990506 1936070147 1363376235</internalNodes>
          <leafValues>
            -1.6214673221111298e-001 1.2774404883384705e-001</leafValues></_>
        <_>
          <internalNodes>
            0 -1 431 1285532448 -1394116099 1681208610 -527958402
            -1254288380 1144076116 -67779742 1951527938</internalNodes>
          <leafValues>
            -2.7875536680221558e-001 7.3980428278446198e-002</leafValues></_>
        <_>
          <internalNodes>
            0 -1 984 136840960 523034474 -742847770 1033764260
            1034292998 -876360999 864150100 239406647</internalNodes>
          <leafValues>
            -3.3406063914299011e-001 6.2792085111141205e-002</leafValues></_>
        <_>
          <internalNodes>
            0 -1 1284 -464144061 -506587836 1889672498 678386496
            -1619059123 1171728917 -153380144 -1607733268</internalNodes>
          <leafValues>
            -1.6096158325672150e-001 1.2953166663646698e-001</leafValues></_>
        <_>
          <internalNodes>
            0 -1 916 -1163984917 -184262687 1620439968 2036165425
            -1504055657 1195155351 979642167 931868114</internalNodes>
          <leafValues>
            -1.2518438696861267e-001 1.6758804023265839e-001</leafValues></_>
        <_>
          <internalNodes>
            0 -1 892 -214855448 -888389980 -1008282902 2080329456
            -1631672486 -1485848761 -788786 -46267170</internalNodes>
          <leafValues>
            -1.1484766751527786e-001 1.8640011548995972e-001</leafValues></_>
        <_>
          <internalNodes>
            0 -1 629 -846460800 -1965236084 -123849184 1479405156
            1641139264 655284072 1917097077 369821042</internalNodes>
          <leafValues>
            -2.5994449853897095e-001 7.9910770058631897e-002</leafValues></_>
        <_>
          <internalNodes>
            0 -1 68 1189260233 -33290866 -1301827617 -250196 1389919193
            -828752273 -226265925 -546478371</internalNodes>
          <leafValues>
            -1.2246979027986526e-001 1.6952550411224365e-001</leafValues></_>
        <_>
          <internalNodes>
            0 -1 145 47137798 103559622 -935422142 1651438940 1680159013
            1159950101 -437554860 5434228</internalNodes>
          <leafValues>
            -4.3504124879837036e-001 4.9030229449272156e-002</leafValues></_>
        <_>
          <internalNodes>
            0 -1 678 -1619519255 -815134603 2026701888 -1135249309
            -1498394550 -583735683 -1236159146 436742633</internalNodes>
          <leafValues>
            -1.7027880251407623e-001 1.2462624907493591e-001</leafValues></_>
        <_>
          <internalNodes>
            0 -1 847 -1361487387 -982921438 -135282778 1067960480
            -1580856444 774285427 774774815 -1077986840</internalNodes>
          <leafValues>
            -1.2109282612800598e-001 1.7273546755313873e-001</leafValues></_>
        <_>
          <internalNodes>
            0 -1 512 -1095563516 1722072506 -1578267080 214909224
            -1061580971 1668003236 -516880908 136801</internalNodes>
          <leafValues>
            -2.4388420581817627e-001 8.6873337626457214e-002</leafValues></_>
        <_>
          <internalNodes>
            0 -1 303 -1642034046 -1064420334 45957714 1349996248
            -432237338 -1976535705 1632036738 1073934354</internalNodes>
          <leafValues>
            -1.9207236170768738e-001 1.0790065675973892e-001</leafValues></_>
        <_>
          <internalNodes>
            0 -1 1237 1623194890 146531666 537069102 -2090014985
            1667673991 1085918067 -1278740928 -1062118700</internalNodes>
          <leafValues>
            -1.7852988839149475e-001 1.1417688429355621e-001</leafValues></_>
        <_>
          <internalNodes>
            0 -1 1357 -1075231598 -2010297206 1780822112 -2123504120
            -1629319990 511320653 61274992 1443560848</internalNodes>
          <leafValues>
            -1.7594249546527863e-001 1.1679385602474213e-001</leafValues></_>
        <_>
          <internalNodes>
            0 -1 818 -1099390842 2028187364 1703932962 -252754447
            -1086399476 -493572004 -136390378 -1627712302</internalNodes>
          <leafValues>
            -1.3230645656585693e-001 1.5713232755661011e-001</leafValues></_>
        <_>
          <internalNodes>
            0 -1 888 -24328984 -823415295 -1393959774 -260179436
            -1810576692 1616140631 -564550169 -561398595</internalNodes>
          <leafValues>
            -1.2216639518737793e-001 1.7656798660755157e-001</leafValues></_>
        <_>
          <internalNodes>
            0 -1 182 139199708 451474182 -64302396 2079093430
            -1728235783 1320949756 -932960136 270279020</internalNodes>
          <leafValues>
            -3.1703373789787292e-001 6.9377325475215912e-002</leafValues></_>
        <_>
          <internalNodes>
            0 -1 773 2133507754 -20229920 451367616 -756337167
            1241139918 1146518862 -260594501 -214318964</internalNodes>
          <leafValues>
            -1.3858954608440399e-001 1.5669339895248413e-001</leafValues></_>
        <_>
          <internalNodes>
            0 -1 132 -1285108726 648307462 -252826014 -1035329949
            2111507477 206720523 -1031833500 1348507446</internalNodes>
          <leafValues>
            -3.9670714735984802e-001 5.4513599723577499e-002</leafValues></_>
        <_>
          <internalNodes>
            0 -1 763 1477455532 -610138966 1303682722 -226495368
            -1572931968 648924935 340812322 -1079429662</internalNodes>
          <leafValues>
            -1.5367530286312103e-001 1.4543880522251129e-001</leafValues></_>
        <_>
          <internalNodes>
            0 -1 296 604177442 -601659513 -430084616 1937177822
            -18949668 -1143824922 1533391174 551543239</internalNodes>
          <leafValues>
            -1.9282896816730499e-001 1.1230710148811340e-001</leafValues></_>
        <_>
          <internalNodes>
            0 -1 1049 971642442 -535924446 -1560810812 -1580729312
            -26298990 124313038 1945133379 -2143274396</internalNodes>
          <leafValues>
            -1.8507744371891022e-001 1.1229411512613297e-001</leafValues></_>
        <_>
          <internalNodes>
            0 -1 802 2092862080 1254956684 -861222276 1954272756
            249687918 1180980302 -1862385866 -243992106</internalNodes>
          <leafValues>
            -1.5071958303451538e-001 1.3900892436504364e-001</leafValues></_>
        <_>
          <internalNodes>
            0 -1 806 -2145342464 -1532712192 1012483936 532452309
            1009793608 989676433 -275488956 10498560</internalNodes>
          <leafValues>
            -3.6982408165931702e-001 5.6654300540685654e-002</leafValues></_>
        <_>
          <internalNodes>
            0 -1 272 39562240 978594 914269280 -522129548 1136787472
            1640240453 1953695060 1445000240</internalNodes>
          <leafValues>
            -3.6323094367980957e-001 5.7244580239057541e-002</leafValues></_>
        <_>
          <internalNodes>
            0 -1 630 -744288056 -68279512 -553762686 -243666056
            -1101299646 -361309080 1640530560 -739528720</internalNodes>
          <leafValues>
            -1.2084028869867325e-001 1.7807446420192719e-001</leafValues></_>
        <_>
          <internalNodes>
            0 -1 575 1015826584 86892618 258243817 1906866304 991469514
            101152850 556328662 222443458</internalNodes>
          <leafValues>
            -2.3346930742263794e-001 9.0159341692924500e-002</leafValues></_>
        <_>
          <internalNodes>
            0 -1 491 94709890 147073478 -54770846 772529836 1276022944
            1328422466 506959103 335350174</internalNodes>
          <leafValues>
            -2.1752724051475525e-001 9.9543042480945587e-002</leafValues></_>
        <_>
          <internalNodes>
            0 -1 257 2093764096 -125014144 -1359205068 -1919680764
            -702710272 -1394828273 1044685624 1747209120</internalNodes>
          <leafValues>
            -3.4320679306983948e-001 6.0847412794828415e-002</leafValues></_>
        <_>
          <internalNodes>
            0 -1 943 1911856863 -1742164822 653877984 -1778182761
            -227346418 832914556 302118113 416046174</internalNodes>
          <leafValues>
            -1.4018912613391876e-001 1.5909844636917114e-001</leafValues></_>
        <_>
          <internalNodes>
            0 -1 691 -617031733 -144130101 -26133342 -13142572
            -221407501 1206775383 -421595169 -202662401</internalNodes>
          <leafValues>
            -8.3763673901557922e-002 2.6123061776161194e-001</leafValues></_>
        <_>
          <internalNodes>
            0 -1 373 -419161980 335517342 -2106994111 2071338576
            764569292 256574406 959796533 -124568510</internalNodes>
          <leafValues>
            -1.5180726349353790e-001 1.3669973611831665e-001</leafValues></_>
        <_>
          <internalNodes>
            0 -1 165 1213135882 -364375066 -1970745726 -532123762
            32677408 105000293 848658246 1077003541</internalNodes>
          <leafValues>
            -3.1520253419876099e-001 6.6588655114173889e-002</leafValues></_>
        <_>
          <internalNodes>
            0 -1 1060 -541600056 -412103000 1034180443 -248666486
            -1279613238 -472449162 -1751455841 -1057297</internalNodes>
          <leafValues>
            -7.9397760331630707e-002 2.7274703979492188e-001</leafValues></_>
        <_>
          <internalNodes>
            0 -1 1248 -1700622712 -361993301 1794559894 653896418
            863979224 -1379795693 -1162479686 -2118456625</internalNodes>
          <leafValues>
            -1.3234984874725342e-001 1.6607336699962616e-001</leafValues></_>
        <_>
          <internalNodes>
            0 -1 483 1324684898 -369079354 1857927778 -337683459
            1509545996 927751981 618541651 928114445</internalNodes>
          <leafValues>
            -2.3352627456188202e-001 9.3936391174793243e-002</leafValues></_>
        <_>
          <internalNodes>
            0 -1 1094 -1968258912 747854483 -891866271 -1060414091
            -1098498670 -234037678 1964365349 24164564</internalNodes>
          <leafValues>
            -2.0650160312652588e-001 1.0508094727993011e-001</leafValues></_>
        <_>
          <internalNodes>
            0 -1 205 241852422 547374630 -1504812124 1749729546
            1877419824 1732793609 1976983924 1616966656</internalNodes>
          <leafValues>
            -3.8583865761756897e-001 5.5320989340543747e-002</leafValues></_>
        <_>
          <internalNodes>
            0 -1 784 440197036 665454264 -763489344 1797693436 678184051
            1182289252 -735552778 968753844</internalNodes>
          <leafValues>
            -2.1072220802307129e-001 1.0438000410795212e-001</leafValues></_>
        <_>
          <internalNodes>
            0 -1 878 -1141189430 -555522544 -1463825919 1892416159
            -690033958 -1211179410 -220792694 -68438022</internalNodes>
          <leafValues>
            -9.5308050513267517e-002 2.3132872581481934e-001</leafValues></_>
        <_>
          <internalNodes>
            0 -1 1216 919020544 246267627 -1931472256 150663336
            611155268 6905718 -190398448 1077443671</internalNodes>
          <leafValues>
            -3.7955975532531738e-001 5.7337347418069839e-002</leafValues></_>
        <_>
          <internalNodes>
            0 -1 615 1564014532 -593363314 1987043104 1944148063
            1022365770 652602712 701658795 -683347223</internalNodes>
          <leafValues>
            -1.3967038691043854e-001 1.5953788161277771e-001</leafValues></_>
        <_>
          <internalNodes>
            0 -1 470 -1121151824 -861214582 2029191713 403679332
            -2073236458 -897690208 1163194754 469787664</internalNodes>
          <leafValues>
            -2.1212394535541534e-001 1.0398496687412262e-001</leafValues></_>
        <_>
          <internalNodes>
            0 -1 16 69730308 -1912050530 75262696 10525259 1778126153
            2055139001 1985835076 46953070</internalNodes>
          <leafValues>
            -4.4468572735786438e-001 4.8199407756328583e-002</leafValues></_>
        <_>
          <internalNodes>
            0 -1 346 -21815154 -9518708 -1096334334 1752420461
            -1211742623 22511383 1718973013 1442852965</internalNodes>
          <leafValues>
            -2.1725216507911682e-001 9.6610285341739655e-002</leafValues></_>
        <_>
          <internalNodes>
            0 -1 5 681969222 -935454519 -1503591253 1503454262
            -1612353764 1988323055 63449790 276051236</internalNodes>
          <leafValues>
            -2.6477918028831482e-001 8.2291387021541595e-002</leafValues></_>
        <_>
          <internalNodes>
            0 -1 533 -113252608 446772608 -2044221152 -836270691
            -1068223486 1047103948 -93259850 885321862</internalNodes>
          <leafValues>
            -2.5792318582534790e-001 8.7152719497680664e-002</leafValues></_></weakClassifiers></_>
    <!-- stage 2 -->
    <_>
      <maxWeakCount>264</maxWeakCount>
      <stageThreshold>-3.0489379167556763e-001</stageThreshold>
      <weakClassifiers>
        <_>
          <internalNodes>
            0 -1 239 -3151730 -36701213 -1130106170 -9438229 1574944751
            -101600257 -18 -1041</internalNodes>
          <leafValues>
            -4.0222409367561340e-001 -1.0240627080202103e-001</leafValues></_>
        <_>
          <internalNodes>
            0 -1 129 -587929682 174509556 -1627460748 -957433860
            -420567605 1415998375 -75956388 880738284</internalNodes>
          <leafValues>
            -2.4410976469516754e-001 7.9499721527099609e-002</leafValues></_>
        <_>
          <internalNodes>
            0 -1 963 -534 -40927250 -1762134816 -201984019 -1347682674
            1150287717 -1207982113 -201329153</internalNodes>
          <leafValues>
            -9.2349268496036530e-002 2.0460543036460876e-001</leafValues></_>
        <_>
          <internalNodes>
            0 -1 105 1773653418 1856831375 -2100329436 -489788242
            2147434247 1199341511 878868228 1699706662</internalNodes>
          <leafValues>
            -1.6632682085037231e-001 1.3086162507534027e-001</leafValues></_>
        <_>
          <internalNodes>
            0 -1 1119 -1145205624 -424968216 -1638006272 -352583708
            -70391796 113129079 -739575946 -203446018</internalNodes>
          <leafValues>
            -1.4388023316860199e-001 1.1473598331212997e-001</leafValues></_>
        <_>
          <internalNodes>
            0 -1 974 754974378 719235403 -117737886 855627735
            -1933811962 1147000433 -1107386668 1962803197</internalNodes>
          <leafValues>
            -1.6375650465488434e-001 1.0933414101600647e-001</leafValues></_>
        <_>
          <internalNodes>
            0 -1 816 -38741846 -611366526 2018734754 831073509
            -1299130176 34405476 -1272785409 399208687</internalNodes>
          <leafValues>
            -1.3513615727424622e-001 1.1241824924945831e-001</leafValues></_>
        <_>
          <internalNodes>
            0 -1 121 -1536972242 684076832 -533732310 -353984370
            882193237 1445191492 1727754308 1951917652</internalNodes>
          <leafValues>
            -2.9127803444862366e-001 6.3307158648967743e-002</leafValues></_>
        <_>
          <internalNodes>
            0 -1 1069 934304962 -1465590806 -524619680 1890320249
            -1462961664 1145012149 1894184182 1353774589</internalNodes>
          <leafValues>
            -1.7840175330638885e-001 8.4048509597778320e-002</leafValues></_>
        <_>
          <internalNodes>
            0 -1 565 402658505 -1903326303 1659512450 214767569
            -1222631729 1791850017 -87885193 441046356</internalNodes>
          <leafValues>
            -1.6646002233028412e-001 8.4789961576461792e-002</leafValues></_>
        <_>
          <internalNodes>
            0 -1 950 -705858072 -72618108 -151524256 -218153091
            -26700092 1129170782 -671940622 -144058663</internalNodes>
          <leafValues>
            -1.0330909490585327e-001 1.4820744097232819e-001</leafValues></_>
        <_>
          <internalNodes>
            0 -1 1273 169814018 11134792 -352378334 43187942 -556301568
            1080524565 -1325868204 1086379230</internalNodes>
          <leafValues>
            -2.5012511014938354e-001 5.9094417840242386e-002</leafValues></_>
        <_>
          <internalNodes>
            0 -1 909 1069240520 -638753343 -187043102 1943502833
            -18948218 1192197975 -1796278289 -136516676</internalNodes>
          <leafValues>
            -9.7276903688907623e-002 1.4801926910877228e-001</leafValues></_>
        <_>
          <internalNodes>
            0 -1 1303 1566550784 360979095 719943536 2140140543
            1064304452 1604372379 1036599700 46968510</internalNodes>
          <leafValues>
            -1.6367840766906738e-001 8.7729088962078094e-002</leafValues></_>
        <_>
          <internalNodes>
            0 -1 1014 -1633155032 -494249302 974288448 -1443152702
            881755204 116080475 -1294798826 -71754542</internalNodes>
          <leafValues>
            -1.3299354910850525e-001 1.0797576606273651e-001</leafValues></_>
        <_>
          <internalNodes>
            0 -1 1061 -240320792 -375366420 1994351808 -791813787
            -1239618880 618708853 -19998730 -69491474</internalNodes>
          <leafValues>
            -9.7795963287353516e-002 1.5246875584125519e-001</leafValues></_>
        <_>
          <internalNodes>
            0 -1 970 2109286378 2079075114 -889719118 -1295142028
            -1774766564 1194180416 -134482161 -1208322401</internalNodes>
          <leafValues>
            -1.0605909675359726e-001 1.3437384366989136e-001</leafValues></_>
        <_>
          <internalNodes>
            0 -1 1070 -594539384 -1884529592 -18033472 1904606688
            -91575608 98300175 917952395 824187040</internalNodes>
          <leafValues>
            -1.8721373379230499e-001 7.5363866984844208e-002</leafValues></_>
        <_>
          <internalNodes>
            0 -1 72 1719910404 1714384654 -1058619166 -290688290
            100082944 342695494 1450865748 1949364480</internalNodes>
          <leafValues>
            -2.8962492942810059e-001 4.5446474105119705e-002</leafValues></_>
        <_>
          <internalNodes>
            0 -1 944 -4466998 -269992254 -25243096 -135790863
